10 64
9 0.20442836 -0.1092285 0.26289222 0.100261085 0.23571731 0.26003322 -0.30149657 0.08226921 0.060199156 -0.35416713 0.07432309 0.036187965 0.061296616 -0.08989095 0.6599322 0.016137939 -0.12157032 0.2782141 -0.018862424 0.011336414 -0.41077814 0.17900358 -0.00617945 0.07431293 0.33393607 -0.12060963 0.05997469 0.30320483 0.34946465 -0.008736025 -0.4037494 -0.05442977 0.29539746 0.17655545 -0.101000346 0.30748546 0.027477518 -0.13882877 -0.047112357 -0.10535827 -0.28605816 0.09092993 0.5530155 -0.30763504 0.26375592 -0.1547491 0.23967683 -0.22121777 -0.33380848 -0.52362823 0.122029215 -0.0554544 -0.23539966 0.12510324 0.013809921 0.14311531 0.09244191 0.123674564 -0.47544655 -0.042832937 -0.44685724 -0.02949226 0.15724911 0.030427856
6 0.6808697 -0.08069327 0.06215946 0.335972 -0.5782495 0.028632034 -0.21813293 -0.12640059 -0.22146411 -0.3938112 -0.02657522 -0.12396623 -0.19429263 0.16939345 -0.6134928 0.22040972 -0.31398743 0.47675687 -0.058580812 0.2963522 -0.2502305 0.23493788 -0.16330092 0.09171 -0.22681455 -0.18579404 0.42134228 0.2976223 0.092103645 0.3212352 -0.07332079 0.48401806 -0.06072215 0.26590756 -0.2970141 0.13695234 -0.5587862 -0.0051875976 0.214666 -0.5670501 0.43316126 -0.1011063 -0.07150576 -0.18041095 -0.71605545 -0.38837236 -0.028300805 0.48464772 0.34906578 0.33050394 0.22271308 0.4323562 0.012023399 -0.7527543 -0.501617 0.18118614 0.41870835 -0.59497964 -0.81765574 -0.39071617 -0.55879736 -0.3399924 -0.55250293 0.83248067
1 0.20789143 -0.100569956 0.246279 0.09376172 0.18717842 0.24022952 -0.28341633 0.07382672 0.034619134 -0.32687145 0.072646715 0.038681645 0.04000273 -0.06444929 0.57602566 0.03290536 -0.13285112 0.26847443 -0.030005336 0.021368036 -0.38835278 0.17818606 -0.013491273 0.07087974 0.2924976 -0.108353905 0.073979795 0.2996516 0.32641932 0.0049400725 -0.3809032 -0.04155538 0.26489955 0.17544517 -0.1064433 0.28658912 0.01127853 -0.13760358 -0.030397601 -0.10962453 -0.23301111 0.08364221 0.50627226 -0.28001726 0.21583843 -0.15242673 0.20782477 -0.18405914 -0.28279424 -0.46972436 0.108103834 -0.04372044 -0.20277643 0.07656658 -0.011930636 0.12819457 0.0900392 0.10281878 -0.44823903 -0.039959673 -0.42348227 -0.027836323 0.12843986 0.062507175
7 0.17876376 -0.12705252 0.26460955 0.09947012 0.2688088 0.27037603 -0.2816726 0.10316626 0.07957995 -0.35728046 0.09023904 0.051385 0.059734568 -0.104285926 0.69769573 0.008122374 -0.11915166 0.27288508 -0.013139428 0.01327324 -0.4277631 0.1827292 0.009145825 0.091877945 0.34129488 -0.13200496 0.054174043 0.31100905 0.37456727 -0.0017180133 -0.42539975 -0.06697401 0.31707072 0.18444408 -0.09634055 0.31536067 0.022913089 -0.1314597 -0.056946848 -0.10611534 -0.2923762 0.10651206 0.5457378 -0.30435777 0.2700189 -0.15570307 0.25559527 -0.23757052 -0.35516372 -0.5480404 0.11382119 -0.060777836 -0.24662057 0.1572812 0.021538414 0.15584335 0.09577085 0.14455254 -0.47345176 -0.04032189 -0.44237685 -0.007790695 0.17352413 0.014957858
2 0.62360287 -0.077838235 0.0528191 0.3068732 -0.53619707 0.020279625 -0.18689479 -0.114888 -0.1987171 -0.35497963 -0.03413646 -0.117786095 -0.18468775 0.14868142 -0.5752443 0.21074978 -0.29094192 0.44008112 -0.050119698 0.27095643 -0.22558436 0.2093069 -0.15559275 0.09823311 -0.20757133 -0.17623524 0.392927 0.2593963 0.07709753 0.2866411 -0.0538408 0.4543158 -0.071703084 0.24478659 -0.28031936 0.10926456 -0.5164357 0.007650048 0.20186 -0.5203408 0.41200888 -0.10845872 -0.07114663 -0.14993997 -0.66491187 -0.3700881 -0.027230198 0.4607084 0.33013538 0.32223406 0.19860499 0.40516582 0.012482512 -0.7005819 -0.461041 0.1745541 0.37245727 -0.5489746 -0.74197 -0.3600543 -0.50231093 -0.32085383 -0.51922274 0.7673791
8 0.6409758 -0.08734983 0.058994375 0.32044214 -0.54528093 0.031740233 -0.20057009 -0.12441073 -0.20240445 -0.37644345 -0.026730262 -0.10949008 -0.19105795 0.15107146 -0.5830234 0.22015327 -0.3012308 0.4473809 -0.043521084 0.26949677 -0.24123533 0.20888586 -0.15979676 0.09317887 -0.21710674 -0.18421859 0.40027726 0.2685236 0.081739545 0.30006602 -0.0566639 0.46550012 -0.059696637 0.24408506 -0.28160825 0.12329192 -0.53455687 -0.0054113315 0.2115232 -0.52798784 0.41922134 -0.11094259 -0.06451777 -0.16965722 -0.6783465 -0.38003215 -0.018139547 0.46790326 0.33569846 0.31867638 0.20732021 0.40939498 0.020838698 -0.71693945 -0.4653019 0.17848332 0.3932436 -0.5676701 -0.7709007 -0.37467268 -0.52559745 -0.3303046 -0.5275245 0.7882021
3 0.19259289 -0.10806647 0.23015316 0.08504644 0.19639958 0.21494748 -0.27052456 0.073083945 0.038008958 -0.32137442 0.07782678 0.028453533 0.050231855 -0.06561682 0.5557906 0.026237909 -0.12826586 0.24699843 -0.018118009 0.021764796 -0.3731713 0.16391385 -0.00091067835 0.064330816 0.29027084 -0.10258168 0.07373708 0.2853144 0.31602257 0.00111701 -0.36328682 -0.03013489 0.26047668 0.17182164 -0.09576067 0.267246 0.008772976 -0.123164035 -0.029946348 -0.09883106 -0.23676977 0.08586424 0.48164058 -0.27413833 0.20800462 -0.15165623 0.20413333 -0.17357305 -0.27430457 -0.44666964 0.114439175 -0.043894056 -0.20201504 0.08606462 -0.0058622807 0.122203425 0.09597115 0.088308714 -0.43130523 -0.046547845 -0.40730438 -0.041375097 0.12820289 0.058319993
5 0.19722718 -0.116079085 0.25350967 0.094943024 0.22019316 0.23947059 -0.28161553 0.0793069 0.054410074 -0.35038698 0.08003994 0.030632695 0.04937162 -0.087284766 0.6143553 0.019113956 -0.13466242 0.26712278 -0.011832148 0.016149785 -0.3957965 0.17626639 -0.010722095 0.082933694 0.3096728 -0.11959153 0.06912845 0.2984508 0.34506974 0.010548783 -0.39386365 -0.044575926 0.2824366 0.17370614 -0.09222651 0.29487902 0.007915995 -0.12329539 -0.040546797 -0.11639966 -0.25555038 0.08107032 0.5175095 -0.2894451 0.23365518 -0.15335812 0.23460181 -0.20329633 -0.30316302 -0.48119032 0.1132549 -0.03605276 -0.21998738 0.103018336 -0.0045691137 0.1440422 0.094034225 0.102757685 -0.47011235 -0.050142806 -0.4354766 -0.0320109 0.14851229 0.042603996
4 0.17049803 -0.12069822 0.27442122 0.091845624 0.29086232 0.26437658 -0.29149526 0.10132006 0.08932095 -0.34839836 0.08606967 0.0450331 0.075696886 -0.09977799 0.7219198 0.010641145 -0.12348835 0.24990791 -0.007927774 -0.0078284275 -0.42214283 0.1646533 0.008083183 0.08405842 0.35652888 -0.12425611 0.04053129 0.30274567 0.38036162 -0.022550035 -0.4250576 -0.07010584 0.3265035 0.16681808 -0.078564204 0.30747882 0.036112864 -0.12202872 -0.07473866 -0.09200608 -0.3189607 0.11493181 0.5614124 -0.3127623 0.30603704 -0.12973234 0.25951558 -0.25535664 -0.37088352 -0.5626525 0.105675325 -0.07773893 -0.24922591 0.18776688 0.03427778 0.15946506 0.08447651 0.15264457 -0.46152562 -0.03756748 -0.43653414 -0.0071287006 0.20677547 -0.0153534245
10 0.18410279 -0.10199597 0.23912674 0.098708875 0.21631315 0.23845147 -0.27943566 0.08661924 0.047378767 -0.33759317 0.07786496 0.038488477 0.054146104 -0.08027282 0.6052439 0.01782072 -0.12168355 0.2617519 -0.024569716 0.021433981 -0.3860724 0.17700414 -0.002895085 0.072482705 0.3114939 -0.12249372 0.05962538 0.2957014 0.3262878 0.008613389 -0.3836252 -0.056117672 0.28540194 0.16858722 -0.09528635 0.28375074 0.01264679 -0.13322538 -0.046304062 -0.1023177 -0.25944522 0.08344517 0.5113661 -0.27403584 0.23825787 -0.14932601 0.22007844 -0.20706955 -0.30437645 -0.48440993 0.11144262 -0.04869066 -0.21624972 0.10462541 0.009010838 0.13673626 0.08948535 0.11586001 -0.44511777 -0.045758005 -0.41228205 -0.025118962 0.14090158 0.034338012
