10 64
9 0.03640466 -0.036436427 0.04493636 -0.19666402 -0.010615149 0.04557454 -0.24975781 0.28442487 -0.29771438 -0.27778158 -0.08045327 0.0002681922 -0.045775354 -0.2044648 0.25731257 0.45680472 -0.2471075 -0.06347204 -0.19966082 0.1957125 0.12380238 -0.45858526 0.3651218 0.03324433 0.4826636 0.19251953 0.11967449 0.687238 -0.18543676 0.007494345 0.07417787 -0.0030654797 -0.0969522 0.4229964 -0.37488776 0.034913246 0.2298371 0.32464382 -0.14351875 0.0049796524 -0.11552072 -0.40152916 0.16416322 0.06780984 -0.21153112 0.12655637 0.27713838 0.06994634 0.60804087 -0.18685693 -0.042268716 -0.23706855 0.22929247 0.11124857 0.09804356 -0.07489532 -0.10396925 -0.055449896 -0.11259924 -0.15220556 -0.13942793 0.16470066 0.28677106 0.5150092
6 0.12053152 -0.008834816 0.01573257 -0.046726506 -0.29354033 -0.117608875 -0.30281112 0.15840065 -0.0032599764 -0.2954834 -0.019386033 -0.17389706 -0.016903158 -0.13171174 0.47808555 0.5036793 -0.2222578 -0.20550267 0.105819575 0.109801665 0.14093152 -0.48579183 0.12182614 0.085206315 0.4613228 0.08343169 -0.006395153 0.33984786 -0.3466677 -0.38504446 0.27154315 -0.051706742 -0.016028853 0.18992579 -0.07877047 -0.11102961 0.22126886 0.112790726 -0.17992483 0.012344078 -0.083922595 -0.31920975 -0.07799174 0.3099622 -0.31607142 0.3028732 0.19634524 0.080881685 0.4660368 -0.54554284 0.006286207 -0.28961325 0.1825435 -0.14918163 0.11757795 0.1635583 -0.13974845 0.1401631 -0.03001262 -0.21579209 -0.20237601 0.030288283 0.32623535 0.4154212
1 0.029206753 -0.031264424 0.036277484 -0.15962942 -0.017963612 0.022639712 -0.20417742 0.2330278 -0.24303716 -0.24271455 -0.06796243 -0.010901236 -0.029720044 -0.17203927 0.21616869 0.38200167 -0.21054329 -0.047852315 -0.16553144 0.14762317 0.10876529 -0.37470216 0.29153565 0.038725838 0.4030631 0.15499549 0.10321701 0.5591672 -0.15719992 -0.018308131 0.06687007 -0.0109529225 -0.0840897 0.34879026 -0.30177718 0.022603529 0.18045112 0.2632007 -0.12811175 0.013926897 -0.09806474 -0.32950607 0.13310036 0.05733154 -0.17332985 0.11063907 0.2210463 0.0696773 0.5031486 -0.17618112 -0.03240058 -0.20241028 0.19301535 0.082443886 0.09475795 -0.054346766 -0.075182654 -0.045384362 -0.081721604 -0.12962583 -0.114318095 0.13089208 0.23607825 0.42989346
7 0.038382106 -0.043264546 0.03435876 -0.18687274 -0.018336508 0.031057628 -0.25091016 0.27412748 -0.2864416 -0.2786651 -0.075255476 -0.02168905 -0.040589098 -0.208383 0.2565413 0.45747393 -0.25285298 -0.07234957 -0.18496995 0.19231878 0.13696109 -0.46391746 0.34501487 0.046945266 0.47805056 0.1768463 0.12518565 0.66842717 -0.18344855 -0.0077608954 0.074334696 -0.014634413 -0.09371252 0.4157226 -0.3597297 0.027149562 0.21555193 0.3177962 -0.14595754 0.014034617 -0.118301064 -0.3998413 0.14949706 0.070528634 -0.2047625 0.13717604 0.2708135 0.06787854 0.5974346 -0.20775887 -0.040019043 -0.24620293 0.2263494 0.085640736 0.09778689 -0.057593416 -0.10532407 -0.04096518 -0.10068544 -0.14998178 -0.14286272 0.16359128 0.28094745 0.5134669
2 0.0958752 -0.01660881 0.01207723 -0.052539725 -0.22145233 -0.093828164 -0.25667858 0.15337501 -0.038727798 -0.26339135 -0.026849002 -0.13143378 -0.018332016 -0.1112895 0.38380486 0.42494825 -0.18553022 -0.1507808 0.060213536 0.10135682 0.11675198 -0.42148793 0.14067207 0.06470671 0.39321455 0.08705985 0.010665516 0.33135733 -0.28280103 -0.28851846 0.20558941 -0.040073674 -0.01549232 0.19563651 -0.09948782 -0.07295609 0.19243635 0.1133651 -0.14647926 0.00017833372 -0.06980577 -0.27372402 -0.040349543 0.24684784 -0.259522 0.24780853 0.1745365 0.065251164 0.42001763 -0.4311566 -0.0061526494 -0.25413206 0.16228479 -0.10564156 0.09627296 0.11416225 -0.107242584 0.103941135 -0.04221695 -0.18321702 -0.15488464 0.030735776 0.274822 0.37051126
8 0.102929175 -0.0107731605 0.017697874 -0.04941461 -0.22730795 -0.098938815 -0.24348068 0.14370096 -0.027075363 -0.256246 -0.013982987 -0.14201061 -0.011757629 -0.11749231 0.39433748 0.4289831 -0.1923736 -0.16737893 0.06574688 0.10282599 0.11166351 -0.40891618 0.11825631 0.0651208 0.38894454 0.089605615 0.012750977 0.31070018 -0.27966797 -0.3010984 0.21923497 -0.03132373 -0.02126275 0.1847287 -0.08552355 -0.07998636 0.18508331 0.11179806 -0.1398798 0.007244348 -0.07903995 -0.27449393 -0.045096397 0.2535397 -0.26321772 0.24536851 0.18141246 0.070019566 0.4066221 -0.44100922 0.0048739514 -0.25208056 0.16620651 -0.09719138 0.087683864 0.1275724 -0.11766042 0.1011289 -0.026985252 -0.17295271 -0.16700993 0.03277432 0.27451405 0.36187053
3 0.03436463 -0.03699857 0.02444737 -0.13253175 -0.012763584 0.024256917 -0.1889564 0.21353869 -0.2131314 -0.21427828 -0.054740507 -0.008572158 -0.035188127 -0.15461282 0.19280705 0.33605346 -0.1869895 -0.044305775 -0.14823428 0.14007524 0.10100348 -0.33378622 0.25852698 0.02400066 0.3514935 0.14403293 0.08456445 0.499278 -0.1398823 -0.007577241 0.05606177 -0.005997771 -0.06803448 0.30575442 -0.2658319 0.025361406 0.16928576 0.22981331 -0.103645876 0.013773043 -0.092855185 -0.29099858 0.11040919 0.056641433 -0.15882236 0.105988674 0.1990809 0.061265007 0.44475493 -0.15833946 -0.01886926 -0.18532683 0.17529517 0.064218804 0.085668564 -0.05402546 -0.071802646 -0.0312346 -0.07543906 -0.120953076 -0.1033709 0.11307723 0.20298927 0.3706773
4 0.03524632 -0.029192694 0.03836068 -0.14926618 -0.014216809 0.018657967 -0.20215392 0.21861425 -0.2191618 -0.22990236 -0.060963918 -0.022642037 -0.03550695 -0.15660954 0.21288401 0.36631635 -0.20614113 -0.062896885 -0.15331532 0.14933473 0.10482722 -0.3738353 0.28427956 0.024515772 0.38676143 0.14645539 0.093277074 0.5299891 -0.16043006 -0.024528027 0.0609033 -0.015739253 -0.071987644 0.32913667 -0.28293934 0.022174016 0.17560032 0.24051537 -0.10957204 0.012257611 -0.09682878 -0.31139112 0.11405337 0.06528646 -0.16802704 0.11160184 0.21607785 0.051427756 0.48298702 -0.16896807 -0.02138621 -0.19102763 0.1908691 0.06648447 0.09070301 -0.053802624 -0.08716073 -0.035760805 -0.087992385 -0.12424319 -0.12029939 0.12397401 0.23621516 0.4148975
5 0.03910623 -0.032118544 0.03248516 -0.120524555 -0.018565692 0.010281597 -0.17696331 0.19650646 -0.19018368 -0.20115237 -0.048677213 -0.01116816 -0.032474864 -0.14367813 0.19663393 0.30943802 -0.17215179 -0.052806806 -0.12804417 0.1255299 0.09565149 -0.3260316 0.23465581 0.03463695 0.33533764 0.1286257 0.079907715 0.45703766 -0.13844782 -0.016099334 0.06898556 -0.0006099643 -0.06188603 0.28266096 -0.2353519 0.011704971 0.16222964 0.20541571 -0.094967544 0.0077771586 -0.07601161 -0.2715337 0.10012024 0.06324707 -0.14237258 0.099675596 0.18333626 0.05877908 0.4144966 -0.15864281 -0.019671151 -0.17165264 0.16171025 0.05121533 0.06660163 -0.02730884 -0.06297196 -0.03256825 -0.06316731 -0.109036274 -0.09554026 0.10342364 0.2017551 0.35731736
10 0.033931173 -0.026143907 0.033997204 -0.12453741 -0.013065863 0.026060302 -0.17630409 0.19843931 -0.19162314 -0.20318894 -0.0533653 -0.01235767 -0.026657235 -0.1377481 0.18476072 0.314393 -0.17153329 -0.052236058 -0.12743406 0.13354902 0.09232526 -0.3225893 0.24182117 0.020579929 0.33405223 0.11933111 0.08365429 0.46006745 -0.12804358 -0.01229796 0.051204503 -0.0057777786 -0.065644756 0.2834375 -0.24146603 0.024556195 0.15880977 0.21560958 -0.10706107 0.0024459332 -0.0840838 -0.2699337 0.100420795 0.047461662 -0.15354785 0.096599355 0.17671835 0.052461177 0.41011977 -0.15337345 -0.02101862 -0.17231789 0.16013275 0.067231685 0.07521523 -0.04248877 -0.07430267 -0.036106914 -0.0683558 -0.10335626 -0.09898821 0.10014515 0.19337447 0.35111067
